digraph Tree {
node [shape=box, style="filled, rounded", color="black", fontname=helvetica] ;
edge [fontname=helvetica] ;
0 [label="Credit_History <= 0.5\ngini = 0.446\nsamples = 631\nvalue = [212, 419]", fillcolor="#399de57e"] ;
1 [label="LoanAmount <= 522.5\ngini = 0.435\nsamples = 147\nvalue = [100, 47]", fillcolor="#e5813987"] ;
0 -> 1 [labeldistance=2.5, labelangle=45, headlabel="True"] ;
2 [label="ApplicantIncome <= 5375.0\ngini = 0.424\nsamples = 144\nvalue = [100, 44]", fillcolor="#e581398f"] ;
1 -> 2 ;
3 [label="LoanAmount <= 82.5\ngini = 0.46\nsamples = 117\nvalue = [75, 42]", fillcolor="#e5813970"] ;
2 -> 3 ;
4 [label="LoanAmount <= 73.0\ngini = 0.117\nsamples = 16\nvalue = [15, 1]", fillcolor="#e58139ee"] ;
3 -> 4 ;
5 [label="gini = 0.0\nsamples = 10\nvalue = [10, 0]", fillcolor="#e58139ff"] ;
4 -> 5 ;
6 [label="LoanAmount <= 75.5\ngini = 0.278\nsamples = 6\nvalue = [5, 1]", fillcolor="#e58139cc"] ;
4 -> 6 ;
7 [label="gini = 0.0\nsamples = 1\nvalue = [0, 1]", fillcolor="#399de5ff"] ;
6 -> 7 ;
8 [label="gini = 0.0\nsamples = 5\nvalue = [5, 0]", fillcolor="#e58139ff"] ;
6 -> 8 ;
9 [label="CoapplicantIncome <= 4685.5\ngini = 0.482\nsamples = 101\nvalue = [60, 41]", fillcolor="#e5813951"] ;
3 -> 9 ;
10 [label="ApplicantIncome <= 4251.5\ngini = 0.469\nsamples = 93\nvalue = [58, 35]", fillcolor="#e5813965"] ;
9 -> 10 ;
11 [label="LoanAmount <= 97.0\ngini = 0.427\nsamples = 68\nvalue = [47, 21]", fillcolor="#e581398d"] ;
10 -> 11 ;
12 [label="ApplicantIncome <= 2787.0\ngini = 0.444\nsamples = 9\nvalue = [3, 6]", fillcolor="#399de57f"] ;
11 -> 12 ;
13 [label="gini = 0.0\nsamples = 5\nvalue = [0, 5]", fillcolor="#399de5ff"] ;
12 -> 13 ;
14 [label="Married_Yes <= 0.5\ngini = 0.375\nsamples = 4\nvalue = [3, 1]", fillcolor="#e58139aa"] ;
12 -> 14 ;
15 [label="gini = 0.0\nsamples = 3\nvalue = [3, 0]", fillcolor="#e58139ff"] ;
14 -> 15 ;
16 [label="gini = 0.0\nsamples = 1\nvalue = [0, 1]", fillcolor="#399de5ff"] ;
14 -> 16 ;
17 [label="Property_Area_Semiurban <= 0.5\ngini = 0.379\nsamples = 59\nvalue = [44, 15]", fillcolor="#e58139a8"] ;
11 -> 17 ;
18 [label="Gender_Male <= 0.5\ngini = 0.251\nsamples = 34\nvalue = [29, 5]", fillcolor="#e58139d3"] ;
17 -> 18 ;
19 [label="Property_Area_Rural <= 0.5\ngini = 0.49\nsamples = 7\nvalue = [3, 4]", fillcolor="#399de540"] ;
18 -> 19 ;
20 [label="LoanAmount <= 148.0\ngini = 0.375\nsamples = 4\nvalue = [3, 1]", fillcolor="#e58139aa"] ;
19 -> 20 ;
21 [label="gini = 0.0\nsamples = 3\nvalue = [3, 0]", fillcolor="#e58139ff"] ;
20 -> 21 ;
22 [label="gini = 0.0\nsamples = 1\nvalue = [0, 1]", fillcolor="#399de5ff"] ;
20 -> 22 ;
23 [label="gini = 0.0\nsamples = 3\nvalue = [0, 3]", fillcolor="#399de5ff"] ;
19 -> 23 ;
24 [label="ApplicantIncome <= 3968.0\ngini = 0.071\nsamples = 27\nvalue = [26, 1]", fillcolor="#e58139f5"] ;
18 -> 24 ;
25 [label="gini = 0.0\nsamples = 25\nvalue = [25, 0]", fillcolor="#e58139ff"] ;
24 -> 25 ;
26 [label="Education_Not Graduate <= 0.5\ngini = 0.5\nsamples = 2\nvalue = [1, 1]", fillcolor="#e5813900"] ;
24 -> 26 ;
27 [label="gini = 0.0\nsamples = 1\nvalue = [1, 0]", fillcolor="#e58139ff"] ;
26 -> 27 ;
28 [label="gini = 0.0\nsamples = 1\nvalue = [0, 1]", fillcolor="#399de5ff"] ;
26 -> 28 ;
29 [label="Married_Yes <= 0.5\ngini = 0.48\nsamples = 25\nvalue = [15, 10]", fillcolor="#e5813955"] ;
17 -> 29 ;
30 [label="CoapplicantIncome <= 771.0\ngini = 0.278\nsamples = 12\nvalue = [10, 2]", fillcolor="#e58139cc"] ;
29 -> 30 ;
31 [label="LoanAmount <= 105.5\ngini = 0.48\nsamples = 5\nvalue = [3, 2]", fillcolor="#e5813955"] ;
30 -> 31 ;
32 [label="gini = 0.0\nsamples = 2\nvalue = [2, 0]", fillcolor="#e58139ff"] ;
31 -> 32 ;
33 [label="ApplicantIncome <= 3853.5\ngini = 0.444\nsamples = 3\nvalue = [1, 2]", fillcolor="#399de57f"] ;
31 -> 33 ;
34 [label="gini = 0.0\nsamples = 2\nvalue = [0, 2]", fillcolor="#399de5ff"] ;
33 -> 34 ;
35 [label="gini = 0.0\nsamples = 1\nvalue = [1, 0]", fillcolor="#e58139ff"] ;
33 -> 35 ;
36 [label="gini = 0.0\nsamples = 7\nvalue = [7, 0]", fillcolor="#e58139ff"] ;
30 -> 36 ;
37 [label="Loan_Amount_Term <= 420.0\ngini = 0.473\nsamples = 13\nvalue = [5, 8]", fillcolor="#399de560"] ;
29 -> 37 ;
38 [label="ApplicantIncome <= 3156.0\ngini = 0.397\nsamples = 11\nvalue = [3, 8]", fillcolor="#399de59f"] ;
37 -> 38 ;
39 [label="LoanAmount <= 112.0\ngini = 0.5\nsamples = 6\nvalue = [3, 3]", fillcolor="#e5813900"] ;
38 -> 39 ;
40 [label="gini = 0.0\nsamples = 3\nvalue = [0, 3]", fillcolor="#399de5ff"] ;
39 -> 40 ;
41 [label="gini = 0.0\nsamples = 3\nvalue = [3, 0]", fillcolor="#e58139ff"] ;
39 -> 41 ;
42 [label="gini = 0.0\nsamples = 5\nvalue = [0, 5]", fillcolor="#399de5ff"] ;
38 -> 42 ;
43 [label="gini = 0.0\nsamples = 2\nvalue = [2, 0]", fillcolor="#e58139ff"] ;
37 -> 43 ;
44 [label="ApplicantIncome <= 4381.5\ngini = 0.493\nsamples = 25\nvalue = [11, 14]", fillcolor="#399de537"] ;
10 -> 44 ;
45 [label="Married_Yes <= 0.5\ngini = 0.245\nsamples = 7\nvalue = [1, 6]", fillcolor="#399de5d4"] ;
44 -> 45 ;
46 [label="Property_Area_Rural <= 0.5\ngini = 0.5\nsamples = 2\nvalue = [1, 1]", fillcolor="#e5813900"] ;
45 -> 46 ;
47 [label="gini = 0.0\nsamples = 1\nvalue = [1, 0]", fillcolor="#e58139ff"] ;
46 -> 47 ;
48 [label="gini = 0.0\nsamples = 1\nvalue = [0, 1]", fillcolor="#399de5ff"] ;
46 -> 48 ;
49 [label="gini = 0.0\nsamples = 5\nvalue = [0, 5]", fillcolor="#399de5ff"] ;
45 -> 49 ;
50 [label="Gender_Male <= 0.5\ngini = 0.494\nsamples = 18\nvalue = [10, 8]", fillcolor="#e5813933"] ;
44 -> 50 ;
51 [label="gini = 0.0\nsamples = 3\nvalue = [3, 0]", fillcolor="#e58139ff"] ;
50 -> 51 ;
52 [label="CoapplicantIncome <= 1440.5\ngini = 0.498\nsamples = 15\nvalue = [7, 8]", fillcolor="#399de520"] ;
50 -> 52 ;
53 [label="LoanAmount <= 129.0\ngini = 0.463\nsamples = 11\nvalue = [4, 7]", fillcolor="#399de56d"] ;
52 -> 53 ;
54 [label="Property_Area_Rural <= 0.5\ngini = 0.375\nsamples = 4\nvalue = [3, 1]", fillcolor="#e58139aa"] ;
53 -> 54 ;
55 [label="gini = 0.0\nsamples = 3\nvalue = [3, 0]", fillcolor="#e58139ff"] ;
54 -> 55 ;
56 [label="gini = 0.0\nsamples = 1\nvalue = [0, 1]", fillcolor="#399de5ff"] ;
54 -> 56 ;
57 [label="ApplicantIncome <= 4591.5\ngini = 0.245\nsamples = 7\nvalue = [1, 6]", fillcolor="#399de5d4"] ;
53 -> 57 ;
58 [label="gini = 0.0\nsamples = 1\nvalue = [1, 0]", fillcolor="#e58139ff"] ;
57 -> 58 ;
59 [label="gini = 0.0\nsamples = 6\nvalue = [0, 6]", fillcolor="#399de5ff"] ;
57 -> 59 ;
60 [label="LoanAmount <= 117.0\ngini = 0.375\nsamples = 4\nvalue = [3, 1]", fillcolor="#e58139aa"] ;
52 -> 60 ;
61 [label="gini = 0.0\nsamples = 1\nvalue = [0, 1]", fillcolor="#399de5ff"] ;
60 -> 61 ;
62 [label="gini = 0.0\nsamples = 3\nvalue = [3, 0]", fillcolor="#e58139ff"] ;
60 -> 62 ;
63 [label="LoanAmount <= 111.5\ngini = 0.375\nsamples = 8\nvalue = [2, 6]", fillcolor="#399de5aa"] ;
9 -> 63 ;
64 [label="gini = 0.0\nsamples = 1\nvalue = [1, 0]", fillcolor="#e58139ff"] ;
63 -> 64 ;
65 [label="Dependents_3+ <= 0.5\ngini = 0.245\nsamples = 7\nvalue = [1, 6]", fillcolor="#399de5d4"] ;
63 -> 65 ;
66 [label="gini = 0.0\nsamples = 6\nvalue = [0, 6]", fillcolor="#399de5ff"] ;
65 -> 66 ;
67 [label="gini = 0.0\nsamples = 1\nvalue = [1, 0]", fillcolor="#e58139ff"] ;
65 -> 67 ;
68 [label="Loan_Amount_Term <= 132.0\ngini = 0.137\nsamples = 27\nvalue = [25, 2]", fillcolor="#e58139eb"] ;
2 -> 68 ;
69 [label="gini = 0.0\nsamples = 1\nvalue = [0, 1]", fillcolor="#399de5ff"] ;
68 -> 69 ;
70 [label="CoapplicantIncome <= 4499.5\ngini = 0.074\nsamples = 26\nvalue = [25, 1]", fillcolor="#e58139f5"] ;
68 -> 70 ;
71 [label="gini = 0.0\nsamples = 22\nvalue = [22, 0]", fillcolor="#e58139ff"] ;
70 -> 71 ;
72 [label="Dependents_0 <= 0.5\ngini = 0.375\nsamples = 4\nvalue = [3, 1]", fillcolor="#e58139aa"] ;
70 -> 72 ;
73 [label="gini = 0.0\nsamples = 3\nvalue = [3, 0]", fillcolor="#e58139ff"] ;
72 -> 73 ;
74 [label="gini = 0.0\nsamples = 1\nvalue = [0, 1]", fillcolor="#399de5ff"] ;
72 -> 74 ;
75 [label="gini = 0.0\nsamples = 3\nvalue = [0, 3]", fillcolor="#399de5ff"] ;
1 -> 75 ;
76 [label="Married_Yes <= 0.5\ngini = 0.356\nsamples = 484\nvalue = [112, 372]", fillcolor="#399de5b2"] ;
0 -> 76 [labeldistance=2.5, labelangle=-45, headlabel="False"] ;
77 [label="Loan_Amount_Term <= 60.0\ngini = 0.425\nsamples = 163\nvalue = [50, 113]", fillcolor="#399de58e"] ;
76 -> 77 ;
78 [label="gini = 0.0\nsamples = 3\nvalue = [3, 0]", fillcolor="#e58139ff"] ;
77 -> 78 ;
79 [label="Loan_Amount_Term <= 420.0\ngini = 0.415\nsamples = 160\nvalue = [47, 113]", fillcolor="#399de595"] ;
77 -> 79 ;
80 [label="LoanAmount <= 303.5\ngini = 0.401\nsamples = 155\nvalue = [43, 112]", fillcolor="#399de59d"] ;
79 -> 80 ;
81 [label="ApplicantIncome <= 3671.0\ngini = 0.392\nsamples = 153\nvalue = [41, 112]", fillcolor="#399de5a2"] ;
80 -> 81 ;
82 [label="ApplicantIncome <= 3366.5\ngini = 0.469\nsamples = 64\nvalue = [24, 40]", fillcolor="#399de566"] ;
81 -> 82 ;
83 [label="LoanAmount <= 46.5\ngini = 0.427\nsamples = 55\nvalue = [17, 38]", fillcolor="#399de58d"] ;
82 -> 83 ;
84 [label="ApplicantIncome <= 2818.5\ngini = 0.375\nsamples = 4\nvalue = [3, 1]", fillcolor="#e58139aa"] ;
83 -> 84 ;
85 [label="gini = 0.0\nsamples = 3\nvalue = [3, 0]", fillcolor="#e58139ff"] ;
84 -> 85 ;
86 [label="gini = 0.0\nsamples = 1\nvalue = [0, 1]", fillcolor="#399de5ff"] ;
84 -> 86 ;
87 [label="Property_Area_Semiurban <= 0.5\ngini = 0.398\nsamples = 51\nvalue = [14, 37]", fillcolor="#399de59f"] ;
83 -> 87 ;
88 [label="ApplicantIncome <= 3252.0\ngini = 0.464\nsamples = 30\nvalue = [11, 19]", fillcolor="#399de56b"] ;
87 -> 88 ;
89 [label="ApplicantIncome <= 2166.5\ngini = 0.493\nsamples = 25\nvalue = [11, 14]", fillcolor="#399de537"] ;
88 -> 89 ;
90 [label="CoapplicantIncome <= 19092.0\ngini = 0.32\nsamples = 10\nvalue = [2, 8]", fillcolor="#399de5bf"] ;
89 -> 90 ;
91 [label="LoanAmount <= 110.0\ngini = 0.198\nsamples = 9\nvalue = [1, 8]", fillcolor="#399de5df"] ;
90 -> 91 ;
92 [label="gini = 0.0\nsamples = 6\nvalue = [0, 6]", fillcolor="#399de5ff"] ;
91 -> 92 ;
93 [label="Property_Area_Urban <= 0.5\ngini = 0.444\nsamples = 3\nvalue = [1, 2]", fillcolor="#399de57f"] ;
91 -> 93 ;
94 [label="gini = 0.0\nsamples = 1\nvalue = [1, 0]", fillcolor="#e58139ff"] ;
93 -> 94 ;
95 [label="gini = 0.0\nsamples = 2\nvalue = [0, 2]", fillcolor="#399de5ff"] ;
93 -> 95 ;
96 [label="gini = 0.0\nsamples = 1\nvalue = [1, 0]", fillcolor="#e58139ff"] ;
90 -> 96 ;
97 [label="ApplicantIncome <= 2492.5\ngini = 0.48\nsamples = 15\nvalue = [9, 6]", fillcolor="#e5813955"] ;
89 -> 97 ;
98 [label="gini = 0.0\nsamples = 5\nvalue = [5, 0]", fillcolor="#e58139ff"] ;
97 -> 98 ;
99 [label="LoanAmount <= 62.5\ngini = 0.48\nsamples = 10\nvalue = [4, 6]", fillcolor="#399de555"] ;
97 -> 99 ;
100 [label="gini = 0.0\nsamples = 3\nvalue = [0, 3]", fillcolor="#399de5ff"] ;
99 -> 100 ;
101 [label="ApplicantIncome <= 2910.5\ngini = 0.49\nsamples = 7\nvalue = [4, 3]", fillcolor="#e5813940"] ;
99 -> 101 ;
102 [label="gini = 0.0\nsamples = 2\nvalue = [2, 0]", fillcolor="#e58139ff"] ;
101 -> 102 ;
103 [label="LoanAmount <= 102.5\ngini = 0.48\nsamples = 5\nvalue = [2, 3]", fillcolor="#399de555"] ;
101 -> 103 ;
104 [label="ApplicantIncome <= 3116.5\ngini = 0.444\nsamples = 3\nvalue = [2, 1]", fillcolor="#e581397f"] ;
103 -> 104 ;
105 [label="gini = 0.0\nsamples = 1\nvalue = [0, 1]", fillcolor="#399de5ff"] ;
104 -> 105 ;
106 [label="gini = 0.0\nsamples = 2\nvalue = [2, 0]", fillcolor="#e58139ff"] ;
104 -> 106 ;
107 [label="gini = 0.0\nsamples = 2\nvalue = [0, 2]", fillcolor="#399de5ff"] ;
103 -> 107 ;
108 [label="gini = 0.0\nsamples = 5\nvalue = [0, 5]", fillcolor="#399de5ff"] ;
88 -> 108 ;
109 [label="Self_Employed_Yes <= 0.5\ngini = 0.245\nsamples = 21\nvalue = [3, 18]", fillcolor="#399de5d4"] ;
87 -> 109 ;
110 [label="ApplicantIncome <= 2938.5\ngini = 0.18\nsamples = 20\nvalue = [2, 18]", fillcolor="#399de5e3"] ;
109 -> 110 ;
111 [label="gini = 0.0\nsamples = 12\nvalue = [0, 12]", fillcolor="#399de5ff"] ;
110 -> 111 ;
112 [label="ApplicantIncome <= 3006.5\ngini = 0.375\nsamples = 8\nvalue = [2, 6]", fillcolor="#399de5aa"] ;
110 -> 112 ;
113 [label="gini = 0.0\nsamples = 1\nvalue = [1, 0]", fillcolor="#e58139ff"] ;
112 -> 113 ;
114 [label="Education_Not Graduate <= 0.5\ngini = 0.245\nsamples = 7\nvalue = [1, 6]", fillcolor="#399de5d4"] ;
112 -> 114 ;
115 [label="gini = 0.0\nsamples = 5\nvalue = [0, 5]", fillcolor="#399de5ff"] ;
114 -> 115 ;
116 [label="ApplicantIncome <= 3183.5\ngini = 0.5\nsamples = 2\nvalue = [1, 1]", fillcolor="#e5813900"] ;
114 -> 116 ;
117 [label="gini = 0.0\nsamples = 1\nvalue = [1, 0]", fillcolor="#e58139ff"] ;
116 -> 117 ;
118 [label="gini = 0.0\nsamples = 1\nvalue = [0, 1]", fillcolor="#399de5ff"] ;
116 -> 118 ;
119 [label="gini = 0.0\nsamples = 1\nvalue = [1, 0]", fillcolor="#e58139ff"] ;
109 -> 119 ;
120 [label="LoanAmount <= 92.5\ngini = 0.346\nsamples = 9\nvalue = [7, 2]", fillcolor="#e58139b6"] ;
82 -> 120 ;
121 [label="ApplicantIncome <= 3643.0\ngini = 0.444\nsamples = 3\nvalue = [1, 2]", fillcolor="#399de57f"] ;
120 -> 121 ;
122 [label="gini = 0.0\nsamples = 2\nvalue = [0, 2]", fillcolor="#399de5ff"] ;
121 -> 122 ;
123 [label="gini = 0.0\nsamples = 1\nvalue = [1, 0]", fillcolor="#e58139ff"] ;
121 -> 123 ;
124 [label="gini = 0.0\nsamples = 6\nvalue = [6, 0]", fillcolor="#e58139ff"] ;
120 -> 124 ;
125 [label="ApplicantIncome <= 4378.0\ngini = 0.309\nsamples = 89\nvalue = [17, 72]", fillcolor="#399de5c3"] ;
81 -> 125 ;
126 [label="CoapplicantIncome <= 4525.5\ngini = 0.064\nsamples = 30\nvalue = [1, 29]", fillcolor="#399de5f6"] ;
125 -> 126 ;
127 [label="gini = 0.0\nsamples = 28\nvalue = [0, 28]", fillcolor="#399de5ff"] ;
126 -> 127 ;
128 [label="ApplicantIncome <= 3958.0\ngini = 0.5\nsamples = 2\nvalue = [1, 1]", fillcolor="#e5813900"] ;
126 -> 128 ;
129 [label="gini = 0.0\nsamples = 1\nvalue = [1, 0]", fillcolor="#e58139ff"] ;
128 -> 129 ;
130 [label="gini = 0.0\nsamples = 1\nvalue = [0, 1]", fillcolor="#399de5ff"] ;
128 -> 130 ;
131 [label="ApplicantIncome <= 4745.5\ngini = 0.395\nsamples = 59\nvalue = [16, 43]", fillcolor="#399de5a0"] ;
125 -> 131 ;
132 [label="LoanAmount <= 113.0\ngini = 0.48\nsamples = 10\nvalue = [6, 4]", fillcolor="#e5813955"] ;
131 -> 132 ;
133 [label="gini = 0.0\nsamples = 3\nvalue = [3, 0]", fillcolor="#e58139ff"] ;
132 -> 133 ;
134 [label="LoanAmount <= 122.0\ngini = 0.49\nsamples = 7\nvalue = [3, 4]", fillcolor="#399de540"] ;
132 -> 134 ;
135 [label="gini = 0.0\nsamples = 2\nvalue = [0, 2]", fillcolor="#399de5ff"] ;
134 -> 135 ;
136 [label="Gender_Male <= 0.5\ngini = 0.48\nsamples = 5\nvalue = [3, 2]", fillcolor="#e5813955"] ;
134 -> 136 ;
137 [label="gini = 0.0\nsamples = 2\nvalue = [2, 0]", fillcolor="#e58139ff"] ;
136 -> 137 ;
138 [label="LoanAmount <= 166.5\ngini = 0.444\nsamples = 3\nvalue = [1, 2]", fillcolor="#399de57f"] ;
136 -> 138 ;
139 [label="gini = 0.0\nsamples = 2\nvalue = [0, 2]", fillcolor="#399de5ff"] ;
138 -> 139 ;
140 [label="gini = 0.0\nsamples = 1\nvalue = [1, 0]", fillcolor="#e58139ff"] ;
138 -> 140 ;
141 [label="LoanAmount <= 188.0\ngini = 0.325\nsamples = 49\nvalue = [10, 39]", fillcolor="#399de5be"] ;
131 -> 141 ;
142 [label="LoanAmount <= 136.5\ngini = 0.278\nsamples = 42\nvalue = [7, 35]", fillcolor="#399de5cc"] ;
141 -> 142 ;
143 [label="LoanAmount <= 130.5\ngini = 0.375\nsamples = 24\nvalue = [6, 18]", fillcolor="#399de5aa"] ;
142 -> 143 ;
144 [label="LoanAmount <= 123.5\ngini = 0.308\nsamples = 21\nvalue = [4, 17]", fillcolor="#399de5c3"] ;
143 -> 144 ;
145 [label="LoanAmount <= 121.0\ngini = 0.408\nsamples = 14\nvalue = [4, 10]", fillcolor="#399de599"] ;
144 -> 145 ;
146 [label="Self_Employed_Yes <= 0.5\ngini = 0.355\nsamples = 13\nvalue = [3, 10]", fillcolor="#399de5b3"] ;
145 -> 146 ;
147 [label="gini = 0.0\nsamples = 7\nvalue = [0, 7]", fillcolor="#399de5ff"] ;
146 -> 147 ;
148 [label="LoanAmount <= 83.5\ngini = 0.5\nsamples = 6\nvalue = [3, 3]", fillcolor="#e5813900"] ;
146 -> 148 ;
149 [label="gini = 0.0\nsamples = 2\nvalue = [2, 0]", fillcolor="#e58139ff"] ;
148 -> 149 ;
150 [label="LoanAmount <= 107.0\ngini = 0.375\nsamples = 4\nvalue = [1, 3]", fillcolor="#399de5aa"] ;
148 -> 150 ;
151 [label="gini = 0.0\nsamples = 2\nvalue = [0, 2]", fillcolor="#399de5ff"] ;
150 -> 151 ;
152 [label="gini = 0.5\nsamples = 2\nvalue = [1, 1]", fillcolor="#e5813900"] ;
150 -> 152 ;
153 [label="gini = 0.0\nsamples = 1\nvalue = [1, 0]", fillcolor="#e58139ff"] ;
145 -> 153 ;
154 [label="gini = 0.0\nsamples = 7\nvalue = [0, 7]", fillcolor="#399de5ff"] ;
144 -> 154 ;
155 [label="Self_Employed_Yes <= 0.5\ngini = 0.444\nsamples = 3\nvalue = [2, 1]", fillcolor="#e581397f"] ;
143 -> 155 ;
156 [label="gini = 0.0\nsamples = 2\nvalue = [2, 0]", fillcolor="#e58139ff"] ;
155 -> 156 ;
157 [label="gini = 0.0\nsamples = 1\nvalue = [0, 1]", fillcolor="#399de5ff"] ;
155 -> 157 ;
158 [label="ApplicantIncome <= 10754.0\ngini = 0.105\nsamples = 18\nvalue = [1, 17]", fillcolor="#399de5f0"] ;
142 -> 158 ;
159 [label="gini = 0.0\nsamples = 15\nvalue = [0, 15]", fillcolor="#399de5ff"] ;
158 -> 159 ;
160 [label="ApplicantIncome <= 12470.5\ngini = 0.444\nsamples = 3\nvalue = [1, 2]", fillcolor="#399de57f"] ;
158 -> 160 ;
161 [label="gini = 0.0\nsamples = 1\nvalue = [1, 0]", fillcolor="#e58139ff"] ;
160 -> 161 ;
162 [label="gini = 0.0\nsamples = 2\nvalue = [0, 2]", fillcolor="#399de5ff"] ;
160 -> 162 ;
163 [label="LoanAmount <= 247.0\ngini = 0.49\nsamples = 7\nvalue = [3, 4]", fillcolor="#399de540"] ;
141 -> 163 ;
164 [label="Gender_Female <= 0.5\ngini = 0.48\nsamples = 5\nvalue = [3, 2]", fillcolor="#e5813955"] ;
163 -> 164 ;
165 [label="CoapplicantIncome <= 1300.0\ngini = 0.444\nsamples = 3\nvalue = [1, 2]", fillcolor="#399de57f"] ;
164 -> 165 ;
166 [label="gini = 0.0\nsamples = 2\nvalue = [0, 2]", fillcolor="#399de5ff"] ;
165 -> 166 ;
167 [label="gini = 0.0\nsamples = 1\nvalue = [1, 0]", fillcolor="#e58139ff"] ;
165 -> 167 ;
168 [label="gini = 0.0\nsamples = 2\nvalue = [2, 0]", fillcolor="#e58139ff"] ;
164 -> 168 ;
169 [label="gini = 0.0\nsamples = 2\nvalue = [0, 2]", fillcolor="#399de5ff"] ;
163 -> 169 ;
170 [label="gini = 0.0\nsamples = 2\nvalue = [2, 0]", fillcolor="#e58139ff"] ;
80 -> 170 ;
171 [label="CoapplicantIncome <= 3112.0\ngini = 0.32\nsamples = 5\nvalue = [4, 1]", fillcolor="#e58139bf"] ;
79 -> 171 ;
172 [label="gini = 0.0\nsamples = 4\nvalue = [4, 0]", fillcolor="#e58139ff"] ;
171 -> 172 ;
173 [label="gini = 0.0\nsamples = 1\nvalue = [0, 1]", fillcolor="#399de5ff"] ;
171 -> 173 ;
174 [label="CoapplicantIncome <= 7541.0\ngini = 0.312\nsamples = 321\nvalue = [62, 259]", fillcolor="#399de5c2"] ;
76 -> 174 ;
175 [label="ApplicantIncome <= 19607.0\ngini = 0.3\nsamples = 315\nvalue = [58, 257]", fillcolor="#399de5c5"] ;
174 -> 175 ;
176 [label="LoanAmount <= 132.5\ngini = 0.294\nsamples = 313\nvalue = [56, 257]", fillcolor="#399de5c7"] ;
175 -> 176 ;
177 [label="LoanAmount <= 94.5\ngini = 0.228\nsamples = 160\nvalue = [21, 139]", fillcolor="#399de5d8"] ;
176 -> 177 ;
178 [label="Education_Graduate <= 0.5\ngini = 0.364\nsamples = 46\nvalue = [11, 35]", fillcolor="#399de5af"] ;
177 -> 178 ;
179 [label="LoanAmount <= 77.0\ngini = 0.494\nsamples = 9\nvalue = [5, 4]", fillcolor="#e5813933"] ;
178 -> 179 ;
180 [label="ApplicantIncome <= 3045.0\ngini = 0.444\nsamples = 6\nvalue = [2, 4]", fillcolor="#399de57f"] ;
179 -> 180 ;
181 [label="LoanAmount <= 46.5\ngini = 0.444\nsamples = 3\nvalue = [2, 1]", fillcolor="#e581397f"] ;
180 -> 181 ;
182 [label="gini = 0.0\nsamples = 1\nvalue = [0, 1]", fillcolor="#399de5ff"] ;
181 -> 182 ;
183 [label="gini = 0.0\nsamples = 2\nvalue = [2, 0]", fillcolor="#e58139ff"] ;
181 -> 183 ;
184 [label="gini = 0.0\nsamples = 3\nvalue = [0, 3]", fillcolor="#399de5ff"] ;
180 -> 184 ;
185 [label="gini = 0.0\nsamples = 3\nvalue = [3, 0]", fillcolor="#e58139ff"] ;
179 -> 185 ;
186 [label="CoapplicantIncome <= 4026.5\ngini = 0.272\nsamples = 37\nvalue = [6, 31]", fillcolor="#399de5ce"] ;
178 -> 186 ;
187 [label="LoanAmount <= 93.5\ngini = 0.239\nsamples = 36\nvalue = [5, 31]", fillcolor="#399de5d6"] ;
186 -> 187 ;
188 [label="Property_Area_Semiurban <= 0.5\ngini = 0.202\nsamples = 35\nvalue = [4, 31]", fillcolor="#399de5de"] ;
187 -> 188 ;
189 [label="Dependents_1 <= 0.5\ngini = 0.087\nsamples = 22\nvalue = [1, 21]", fillcolor="#399de5f3"] ;
188 -> 189 ;
190 [label="gini = 0.0\nsamples = 18\nvalue = [0, 18]", fillcolor="#399de5ff"] ;
189 -> 190 ;
191 [label="LoanAmount <= 58.5\ngini = 0.375\nsamples = 4\nvalue = [1, 3]", fillcolor="#399de5aa"] ;
189 -> 191 ;
192 [label="gini = 0.0\nsamples = 2\nvalue = [0, 2]", fillcolor="#399de5ff"] ;
191 -> 192 ;
193 [label="Property_Area_Urban <= 0.5\ngini = 0.5\nsamples = 2\nvalue = [1, 1]", fillcolor="#e5813900"] ;
191 -> 193 ;
194 [label="gini = 0.0\nsamples = 1\nvalue = [0, 1]", fillcolor="#399de5ff"] ;
193 -> 194 ;
195 [label="gini = 0.0\nsamples = 1\nvalue = [1, 0]", fillcolor="#e58139ff"] ;
193 -> 195 ;
196 [label="LoanAmount <= 88.0\ngini = 0.355\nsamples = 13\nvalue = [3, 10]", fillcolor="#399de5b3"] ;
188 -> 196 ;
197 [label="Dependents_2 <= 0.5\ngini = 0.278\nsamples = 12\nvalue = [2, 10]", fillcolor="#399de5cc"] ;
196 -> 197 ;
198 [label="LoanAmount <= 76.5\ngini = 0.165\nsamples = 11\nvalue = [1, 10]", fillcolor="#399de5e6"] ;
197 -> 198 ;
199 [label="gini = 0.0\nsamples = 7\nvalue = [0, 7]", fillcolor="#399de5ff"] ;
198 -> 199 ;
200 [label="LoanAmount <= 82.5\ngini = 0.375\nsamples = 4\nvalue = [1, 3]", fillcolor="#399de5aa"] ;
198 -> 200 ;
201 [label="Dependents_1 <= 0.5\ngini = 0.5\nsamples = 2\nvalue = [1, 1]", fillcolor="#e5813900"] ;
200 -> 201 ;
202 [label="gini = 0.0\nsamples = 1\nvalue = [0, 1]", fillcolor="#399de5ff"] ;
201 -> 202 ;
203 [label="gini = 0.0\nsamples = 1\nvalue = [1, 0]", fillcolor="#e58139ff"] ;
201 -> 203 ;
204 [label="gini = 0.0\nsamples = 2\nvalue = [0, 2]", fillcolor="#399de5ff"] ;
200 -> 204 ;
205 [label="gini = 0.0\nsamples = 1\nvalue = [1, 0]", fillcolor="#e58139ff"] ;
197 -> 205 ;
206 [label="gini = 0.0\nsamples = 1\nvalue = [1, 0]", fillcolor="#e58139ff"] ;
196 -> 206 ;
207 [label="gini = 0.0\nsamples = 1\nvalue = [1, 0]", fillcolor="#e58139ff"] ;
187 -> 207 ;
208 [label="gini = 0.0\nsamples = 1\nvalue = [1, 0]", fillcolor="#e58139ff"] ;
186 -> 208 ;
209 [label="ApplicantIncome <= 4282.0\ngini = 0.16\nsamples = 114\nvalue = [10, 104]", fillcolor="#399de5e6"] ;
177 -> 209 ;
210 [label="ApplicantIncome <= 2419.0\ngini = 0.067\nsamples = 86\nvalue = [3, 83]", fillcolor="#399de5f6"] ;
209 -> 210 ;
211 [label="ApplicantIncome <= 2275.0\ngini = 0.236\nsamples = 22\nvalue = [3, 19]", fillcolor="#399de5d7"] ;
210 -> 211 ;
212 [label="CoapplicantIncome <= 2849.0\ngini = 0.1\nsamples = 19\nvalue = [1, 18]", fillcolor="#399de5f1"] ;
211 -> 212 ;
213 [label="gini = 0.0\nsamples = 15\nvalue = [0, 15]", fillcolor="#399de5ff"] ;
212 -> 213 ;
214 [label="LoanAmount <= 116.5\ngini = 0.375\nsamples = 4\nvalue = [1, 3]", fillcolor="#399de5aa"] ;
212 -> 214 ;
215 [label="gini = 0.0\nsamples = 1\nvalue = [1, 0]", fillcolor="#e58139ff"] ;
214 -> 215 ;
216 [label="gini = 0.0\nsamples = 3\nvalue = [0, 3]", fillcolor="#399de5ff"] ;
214 -> 216 ;
217 [label="Property_Area_Semiurban <= 0.5\ngini = 0.444\nsamples = 3\nvalue = [2, 1]", fillcolor="#e581397f"] ;
211 -> 217 ;
218 [label="gini = 0.0\nsamples = 2\nvalue = [2, 0]", fillcolor="#e58139ff"] ;
217 -> 218 ;
219 [label="gini = 0.0\nsamples = 1\nvalue = [0, 1]", fillcolor="#399de5ff"] ;
217 -> 219 ;
220 [label="gini = 0.0\nsamples = 64\nvalue = [0, 64]", fillcolor="#399de5ff"] ;
210 -> 220 ;
221 [label="ApplicantIncome <= 4637.0\ngini = 0.375\nsamples = 28\nvalue = [7, 21]", fillcolor="#399de5aa"] ;
209 -> 221 ;
222 [label="Property_Area_Semiurban <= 0.5\ngini = 0.48\nsamples = 10\nvalue = [6, 4]", fillcolor="#e5813955"] ;
221 -> 222 ;
223 [label="Loan_Amount_Term <= 222.0\ngini = 0.375\nsamples = 8\nvalue = [6, 2]", fillcolor="#e58139aa"] ;
222 -> 223 ;
224 [label="gini = 0.0\nsamples = 1\nvalue = [0, 1]", fillcolor="#399de5ff"] ;
223 -> 224 ;
225 [label="ApplicantIncome <= 4317.0\ngini = 0.245\nsamples = 7\nvalue = [6, 1]", fillcolor="#e58139d4"] ;
223 -> 225 ;
226 [label="ApplicantIncome <= 4292.0\ngini = 0.5\nsamples = 2\nvalue = [1, 1]", fillcolor="#e5813900"] ;
225 -> 226 ;
227 [label="gini = 0.0\nsamples = 1\nvalue = [1, 0]", fillcolor="#e58139ff"] ;
226 -> 227 ;
228 [label="gini = 0.0\nsamples = 1\nvalue = [0, 1]", fillcolor="#399de5ff"] ;
226 -> 228 ;
229 [label="gini = 0.0\nsamples = 5\nvalue = [5, 0]", fillcolor="#e58139ff"] ;
225 -> 229 ;
230 [label="gini = 0.0\nsamples = 2\nvalue = [0, 2]", fillcolor="#399de5ff"] ;
222 -> 230 ;
231 [label="Property_Area_Semiurban <= 0.5\ngini = 0.105\nsamples = 18\nvalue = [1, 17]", fillcolor="#399de5f0"] ;
221 -> 231 ;
232 [label="gini = 0.0\nsamples = 13\nvalue = [0, 13]", fillcolor="#399de5ff"] ;
231 -> 232 ;
233 [label="ApplicantIncome <= 5290.0\ngini = 0.32\nsamples = 5\nvalue = [1, 4]", fillcolor="#399de5bf"] ;
231 -> 233 ;
234 [label="gini = 0.0\nsamples = 2\nvalue = [0, 2]", fillcolor="#399de5ff"] ;
233 -> 234 ;
235 [label="ApplicantIncome <= 5985.0\ngini = 0.444\nsamples = 3\nvalue = [1, 2]", fillcolor="#399de57f"] ;
233 -> 235 ;
236 [label="gini = 0.0\nsamples = 1\nvalue = [1, 0]", fillcolor="#e58139ff"] ;
235 -> 236 ;
237 [label="gini = 0.0\nsamples = 2\nvalue = [0, 2]", fillcolor="#399de5ff"] ;
235 -> 237 ;
238 [label="ApplicantIncome <= 2259.0\ngini = 0.353\nsamples = 153\nvalue = [35, 118]", fillcolor="#399de5b3"] ;
176 -> 238 ;
239 [label="LoanAmount <= 174.0\ngini = 0.32\nsamples = 5\nvalue = [4, 1]", fillcolor="#e58139bf"] ;
238 -> 239 ;
240 [label="gini = 0.0\nsamples = 4\nvalue = [4, 0]", fillcolor="#e58139ff"] ;
239 -> 240 ;
241 [label="gini = 0.0\nsamples = 1\nvalue = [0, 1]", fillcolor="#399de5ff"] ;
239 -> 241 ;
242 [label="Education_Graduate <= 0.5\ngini = 0.331\nsamples = 148\nvalue = [31, 117]", fillcolor="#399de5bb"] ;
238 -> 242 ;
243 [label="ApplicantIncome <= 4644.5\ngini = 0.49\nsamples = 14\nvalue = [6, 8]", fillcolor="#399de540"] ;
242 -> 243 ;
244 [label="ApplicantIncome <= 2585.5\ngini = 0.346\nsamples = 9\nvalue = [2, 7]", fillcolor="#399de5b6"] ;
243 -> 244 ;
245 [label="gini = 0.0\nsamples = 1\nvalue = [1, 0]", fillcolor="#e58139ff"] ;
244 -> 245 ;
246 [label="Dependents_0 <= 0.5\ngini = 0.219\nsamples = 8\nvalue = [1, 7]", fillcolor="#399de5db"] ;
244 -> 246 ;
247 [label="gini = 0.0\nsamples = 5\nvalue = [0, 5]", fillcolor="#399de5ff"] ;
246 -> 247 ;
248 [label="LoanAmount <= 156.0\ngini = 0.444\nsamples = 3\nvalue = [1, 2]", fillcolor="#399de57f"] ;
246 -> 248 ;
249 [label="gini = 0.0\nsamples = 1\nvalue = [0, 1]", fillcolor="#399de5ff"] ;
248 -> 249 ;
250 [label="CoapplicantIncome <= 1412.5\ngini = 0.5\nsamples = 2\nvalue = [1, 1]", fillcolor="#e5813900"] ;
248 -> 250 ;
251 [label="gini = 0.0\nsamples = 1\nvalue = [0, 1]", fillcolor="#399de5ff"] ;
250 -> 251 ;
252 [label="gini = 0.0\nsamples = 1\nvalue = [1, 0]", fillcolor="#e58139ff"] ;
250 -> 252 ;
253 [label="Gender_Male <= 0.5\ngini = 0.32\nsamples = 5\nvalue = [4, 1]", fillcolor="#e58139bf"] ;
243 -> 253 ;
254 [label="gini = 0.0\nsamples = 1\nvalue = [0, 1]", fillcolor="#399de5ff"] ;
253 -> 254 ;
255 [label="gini = 0.0\nsamples = 4\nvalue = [4, 0]", fillcolor="#e58139ff"] ;
253 -> 255 ;
256 [label="LoanAmount <= 133.5\ngini = 0.304\nsamples = 134\nvalue = [25, 109]", fillcolor="#399de5c5"] ;
242 -> 256 ;
257 [label="gini = 0.0\nsamples = 1\nvalue = [1, 0]", fillcolor="#e58139ff"] ;
256 -> 257 ;
258 [label="LoanAmount <= 169.0\ngini = 0.296\nsamples = 133\nvalue = [24, 109]", fillcolor="#399de5c7"] ;
256 -> 258 ;
259 [label="Loan_Amount_Term <= 120.0\ngini = 0.188\nsamples = 57\nvalue = [6, 51]", fillcolor="#399de5e1"] ;
258 -> 259 ;
260 [label="CoapplicantIncome <= 1262.5\ngini = 0.5\nsamples = 2\nvalue = [1, 1]", fillcolor="#e5813900"] ;
259 -> 260 ;
261 [label="gini = 0.0\nsamples = 1\nvalue = [0, 1]", fillcolor="#399de5ff"] ;
260 -> 261 ;
262 [label="gini = 0.0\nsamples = 1\nvalue = [1, 0]", fillcolor="#e58139ff"] ;
260 -> 262 ;
263 [label="ApplicantIncome <= 2962.0\ngini = 0.165\nsamples = 55\nvalue = [5, 50]", fillcolor="#399de5e6"] ;
259 -> 263 ;
264 [label="ApplicantIncome <= 2775.5\ngini = 0.375\nsamples = 8\nvalue = [2, 6]", fillcolor="#399de5aa"] ;
263 -> 264 ;
265 [label="gini = 0.0\nsamples = 6\nvalue = [0, 6]", fillcolor="#399de5ff"] ;
264 -> 265 ;
266 [label="gini = 0.0\nsamples = 2\nvalue = [2, 0]", fillcolor="#e58139ff"] ;
264 -> 266 ;
267 [label="CoapplicantIncome <= 350.0\ngini = 0.12\nsamples = 47\nvalue = [3, 44]", fillcolor="#399de5ee"] ;
263 -> 267 ;
268 [label="LoanAmount <= 134.5\ngini = 0.305\nsamples = 16\nvalue = [3, 13]", fillcolor="#399de5c4"] ;
267 -> 268 ;
269 [label="gini = 0.0\nsamples = 1\nvalue = [1, 0]", fillcolor="#e58139ff"] ;
268 -> 269 ;
270 [label="ApplicantIncome <= 6117.5\ngini = 0.231\nsamples = 15\nvalue = [2, 13]", fillcolor="#399de5d8"] ;
268 -> 270 ;
271 [label="gini = 0.0\nsamples = 9\nvalue = [0, 9]", fillcolor="#399de5ff"] ;
270 -> 271 ;
272 [label="Self_Employed_No <= 0.5\ngini = 0.444\nsamples = 6\nvalue = [2, 4]", fillcolor="#399de57f"] ;
270 -> 272 ;
273 [label="gini = 0.0\nsamples = 1\nvalue = [1, 0]", fillcolor="#e58139ff"] ;
272 -> 273 ;
274 [label="ApplicantIncome <= 6411.5\ngini = 0.32\nsamples = 5\nvalue = [1, 4]", fillcolor="#399de5bf"] ;
272 -> 274 ;
275 [label="gini = 0.0\nsamples = 1\nvalue = [1, 0]", fillcolor="#e58139ff"] ;
274 -> 275 ;
276 [label="gini = 0.0\nsamples = 4\nvalue = [0, 4]", fillcolor="#399de5ff"] ;
274 -> 276 ;
277 [label="gini = 0.0\nsamples = 31\nvalue = [0, 31]", fillcolor="#399de5ff"] ;
267 -> 277 ;
278 [label="Dependents_0 <= 0.5\ngini = 0.361\nsamples = 76\nvalue = [18, 58]", fillcolor="#399de5b0"] ;
258 -> 278 ;
279 [label="LoanAmount <= 172.5\ngini = 0.26\nsamples = 52\nvalue = [8, 44]", fillcolor="#399de5d1"] ;
278 -> 279 ;
280 [label="ApplicantIncome <= 4891.5\ngini = 0.444\nsamples = 3\nvalue = [2, 1]", fillcolor="#e581397f"] ;
279 -> 280 ;
281 [label="gini = 0.0\nsamples = 2\nvalue = [2, 0]", fillcolor="#e58139ff"] ;
280 -> 281 ;
282 [label="gini = 0.0\nsamples = 1\nvalue = [0, 1]", fillcolor="#399de5ff"] ;
280 -> 282 ;
283 [label="Dependents_2 <= 0.5\ngini = 0.215\nsamples = 49\nvalue = [6, 43]", fillcolor="#399de5db"] ;
279 -> 283 ;
284 [label="LoanAmount <= 456.0\ngini = 0.074\nsamples = 26\nvalue = [1, 25]", fillcolor="#399de5f5"] ;
283 -> 284 ;
285 [label="gini = 0.0\nsamples = 24\nvalue = [0, 24]", fillcolor="#399de5ff"] ;
284 -> 285 ;
286 [label="ApplicantIncome <= 18908.5\ngini = 0.5\nsamples = 2\nvalue = [1, 1]", fillcolor="#e5813900"] ;
284 -> 286 ;
287 [label="gini = 0.0\nsamples = 1\nvalue = [1, 0]", fillcolor="#e58139ff"] ;
286 -> 287 ;
288 [label="gini = 0.0\nsamples = 1\nvalue = [0, 1]", fillcolor="#399de5ff"] ;
286 -> 288 ;
289 [label="ApplicantIncome <= 6395.0\ngini = 0.34\nsamples = 23\nvalue = [5, 18]", fillcolor="#399de5b8"] ;
283 -> 289 ;
290 [label="CoapplicantIncome <= 3291.5\ngini = 0.48\nsamples = 10\nvalue = [4, 6]", fillcolor="#399de555"] ;
289 -> 290 ;
291 [label="ApplicantIncome <= 3789.0\ngini = 0.32\nsamples = 5\nvalue = [4, 1]", fillcolor="#e58139bf"] ;
290 -> 291 ;
292 [label="gini = 0.0\nsamples = 1\nvalue = [0, 1]", fillcolor="#399de5ff"] ;
291 -> 292 ;
293 [label="gini = 0.0\nsamples = 4\nvalue = [4, 0]", fillcolor="#e58139ff"] ;
291 -> 293 ;
294 [label="gini = 0.0\nsamples = 5\nvalue = [0, 5]", fillcolor="#399de5ff"] ;
290 -> 294 ;
295 [label="ApplicantIncome <= 12695.0\ngini = 0.142\nsamples = 13\nvalue = [1, 12]", fillcolor="#399de5ea"] ;
289 -> 295 ;
296 [label="gini = 0.0\nsamples = 11\nvalue = [0, 11]", fillcolor="#399de5ff"] ;
295 -> 296 ;
297 [label="Property_Area_Urban <= 0.5\ngini = 0.5\nsamples = 2\nvalue = [1, 1]", fillcolor="#e5813900"] ;
295 -> 297 ;
298 [label="gini = 0.0\nsamples = 1\nvalue = [1, 0]", fillcolor="#e58139ff"] ;
297 -> 298 ;
299 [label="gini = 0.0\nsamples = 1\nvalue = [0, 1]", fillcolor="#399de5ff"] ;
297 -> 299 ;
300 [label="ApplicantIncome <= 5617.5\ngini = 0.486\nsamples = 24\nvalue = [10, 14]", fillcolor="#399de549"] ;
278 -> 300 ;
301 [label="ApplicantIncome <= 2834.0\ngini = 0.408\nsamples = 7\nvalue = [5, 2]", fillcolor="#e5813999"] ;
300 -> 301 ;
302 [label="gini = 0.0\nsamples = 2\nvalue = [0, 2]", fillcolor="#399de5ff"] ;
301 -> 302 ;
303 [label="gini = 0.0\nsamples = 5\nvalue = [5, 0]", fillcolor="#e58139ff"] ;
301 -> 303 ;
304 [label="Gender_Female <= 0.5\ngini = 0.415\nsamples = 17\nvalue = [5, 12]", fillcolor="#399de595"] ;
300 -> 304 ;
305 [label="CoapplicantIncome <= 4381.0\ngini = 0.375\nsamples = 16\nvalue = [4, 12]", fillcolor="#399de5aa"] ;
304 -> 305 ;
306 [label="Property_Area_Semiurban <= 0.5\ngini = 0.32\nsamples = 15\nvalue = [3, 12]", fillcolor="#399de5bf"] ;
305 -> 306 ;
307 [label="ApplicantIncome <= 6899.5\ngini = 0.444\nsamples = 9\nvalue = [3, 6]", fillcolor="#399de57f"] ;
306 -> 307 ;
308 [label="gini = 0.0\nsamples = 3\nvalue = [0, 3]", fillcolor="#399de5ff"] ;
307 -> 308 ;
309 [label="Loan_Amount_Term <= 270.0\ngini = 0.5\nsamples = 6\nvalue = [3, 3]", fillcolor="#e5813900"] ;
307 -> 309 ;
310 [label="gini = 0.0\nsamples = 1\nvalue = [0, 1]", fillcolor="#399de5ff"] ;
309 -> 310 ;
311 [label="Self_Employed_Yes <= 0.5\ngini = 0.48\nsamples = 5\nvalue = [3, 2]", fillcolor="#e5813955"] ;
309 -> 311 ;
312 [label="LoanAmount <= 183.5\ngini = 0.375\nsamples = 4\nvalue = [3, 1]", fillcolor="#e58139aa"] ;
311 -> 312 ;
313 [label="gini = 0.0\nsamples = 1\nvalue = [0, 1]", fillcolor="#399de5ff"] ;
312 -> 313 ;
314 [label="gini = 0.0\nsamples = 3\nvalue = [3, 0]", fillcolor="#e58139ff"] ;
312 -> 314 ;
315 [label="gini = 0.0\nsamples = 1\nvalue = [0, 1]", fillcolor="#399de5ff"] ;
311 -> 315 ;
316 [label="gini = 0.0\nsamples = 6\nvalue = [0, 6]", fillcolor="#399de5ff"] ;
306 -> 316 ;
317 [label="gini = 0.0\nsamples = 1\nvalue = [1, 0]", fillcolor="#e58139ff"] ;
305 -> 317 ;
318 [label="gini = 0.0\nsamples = 1\nvalue = [1, 0]", fillcolor="#e58139ff"] ;
304 -> 318 ;
319 [label="gini = 0.0\nsamples = 2\nvalue = [2, 0]", fillcolor="#e58139ff"] ;
175 -> 319 ;
320 [label="CoapplicantIncome <= 11317.0\ngini = 0.444\nsamples = 6\nvalue = [4, 2]", fillcolor="#e581397f"] ;
174 -> 320 ;
321 [label="gini = 0.0\nsamples = 3\nvalue = [3, 0]", fillcolor="#e58139ff"] ;
320 -> 321 ;
322 [label="Self_Employed_No <= 0.5\ngini = 0.444\nsamples = 3\nvalue = [1, 2]", fillcolor="#399de57f"] ;
320 -> 322 ;
323 [label="gini = 0.0\nsamples = 1\nvalue = [1, 0]", fillcolor="#e58139ff"] ;
322 -> 323 ;
324 [label="gini = 0.0\nsamples = 2\nvalue = [0, 2]", fillcolor="#399de5ff"] ;
322 -> 324 ;
}